solver_type L2R_LR
nr_class 2
label 1 -1
nr_feature 74
bias -1
w
1.222464997378115 
0.7673708234684793 
-0.1308034182638653 
-2.443777077873907 
0.6254384212021973 
1.117797873857613 
-0.2085928971418969 
0.5841037062691794 
2.286208891801845 
-0.2418792483738266 
-0.2823983052394189 
-1.14193071283376 
0.5368409768713974 
-1.061997694675041 
0.6891367092141633 
-0.07549190010693144 
2.221669658426986 
2.384191749814879 
-0.1727130920335272 
0.4759332322367538 
2.053418629101069 
0.9690256940528968 
0.832453589938601 
-0.5622955875216128 
0.2457389671302947 
1.500447687825941 
0.2925557219493802 
-0.0626197961777977 
0.1851271928488111 
1.166623765895537 
-0.09440496394942172 
2.001160521795024 
1.475784897642714 
1.318600089241026 
0.02367041582363332 
1.412955220390002 
0.4293901162030888 
0.8060074091793428 
0.2492384493914891 
0.2119097918897479 
1.559983521029094 
1.040406541258097 
-0.8857647131860267 
2.215699199235265 
2.005864320167142 
1.844567995690007 
0.1763450649293691 
-0.6245620727993303 
0.8040114180761916 
0.5741846701289208 
2.635575343217469 
0.194373758865339 
0.01085804418894522 
0.09357769815378028 
1.983616337465312 
1.320640219228124 
1.231839632526861 
-1.050610246521098 
-0.3275757406553528 
-0.4684222882124025 
1.118181117550893 
-0.7568296476905833 
1.165506040768394 
1.556519511117408 
1.773380782044657 
2.783619867373184 
-0.4265104808502829 
0.2616061659865813 
2.142325898619399 
1.040625171843601 
1.583031936001993 
3.00535205447112 
0.1658275977997957 
0.9662804598676002 
